digraph Tree {
node [shape=box, style="filled", color="black"] ;
0 [label="Pole Angular Velocity <= 0.802\nmse = 318.634\nsamples = 512\nvalue = 36.048", fillcolor="#eda978"] ;
1 [label="Pole Angular Velocity <= -0.809\nmse = 235.562\nsamples = 429\nvalue = 40.054", fillcolor="#eba069"] ;
0 -> 1 [labeldistance=2.5, labelangle=45, headlabel="True"] ;
2 [label="Pole Angular Velocity <= -1.195\nmse = 157.865\nsamples = 67\nvalue = 15.606", fillcolor="#f8dbc7"] ;
1 -> 2 ;
3 [label="Pole Angle <= -0.098\nmse = 21.38\nsamples = 28\nvalue = 6.024", fillcolor="#fcf3ec"] ;
2 -> 3 ;
4 [label="Pole Angle <= -0.183\nmse = 6.496\nsamples = 22\nvalue = 4.691", fillcolor="#fdf6f1"] ;
3 -> 4 ;
5 [label="mse = 0.0\nsamples = 5\nvalue = 1.0", fillcolor="#ffffff"] ;
4 -> 5 ;
6 [label="mse = 3.222\nsamples = 17\nvalue = 5.776", fillcolor="#fdf3ed"] ;
4 -> 6 ;
7 [label="mse = 45.545\nsamples = 6\nvalue = 10.912", fillcolor="#fae7d9"] ;
3 -> 7 ;
8 [label="Action: Push Right <= 0.5\nmse = 142.613\nsamples = 39\nvalue = 22.485", fillcolor="#f4cbad"] ;
2 -> 8 ;
9 [label="mse = 59.099\nsamples = 17\nvalue = 33.448", fillcolor="#efb082"] ;
8 -> 9 ;
10 [label="Pole Angle <= -0.075\nmse = 42.49\nsamples = 22\nvalue = 14.013", fillcolor="#f8dfcd"] ;
8 -> 10 ;
11 [label="mse = 2.889\nsamples = 8\nvalue = 5.497", fillcolor="#fdf4ee"] ;
10 -> 11 ;
12 [label="mse = 0.0\nsamples = 14\nvalue = 18.879", fillcolor="#f6d3ba"] ;
10 -> 12 ;
13 [label="Pole Angle <= 0.076\nmse = 118.836\nsamples = 362\nvalue = 44.579", fillcolor="#e99558"] ;
1 -> 13 ;
14 [label="Pole Angle <= -0.066\nmse = 59.012\nsamples = 286\nvalue = 47.842", fillcolor="#e78d4b"] ;
13 -> 14 ;
15 [label="Pole Angular Velocity <= -0.312\nmse = 56.136\nsamples = 31\nvalue = 29.972", fillcolor="#f0b890"] ;
14 -> 15 ;
16 [label="mse = 37.331\nsamples = 19\nvalue = 26.246", fillcolor="#f2c19e"] ;
15 -> 16 ;
17 [label="mse = 29.144\nsamples = 12\nvalue = 35.87", fillcolor="#edaa79"] ;
15 -> 17 ;
18 [label="Pole Angular Velocity <= 0.294\nmse = 15.819\nsamples = 255\nvalue = 50.015", fillcolor="#e68743"] ;
14 -> 18 ;
19 [label="Pole Angle <= -0.056\nmse = 11.319\nsamples = 187\nvalue = 51.067", fillcolor="#e6853f"] ;
18 -> 19 ;
20 [label="mse = 101.952\nsamples = 9\nvalue = 44.793", fillcolor="#e99457"] ;
19 -> 20 ;
21 [label="Pole Angle <= 0.031\nmse = 4.646\nsamples = 178\nvalue = 51.384", fillcolor="#e6843e"] ;
19 -> 21 ;
22 [label="Cart Position <= -0.013\nmse = 3.612\nsamples = 145\nvalue = 51.831", fillcolor="#e5833c"] ;
21 -> 22 ;
23 [label="Pole Angle <= -0.026\nmse = 6.808\nsamples = 48\nvalue = 50.73", fillcolor="#e68640"] ;
22 -> 23 ;
24 [label="mse = 7.897\nsamples = 19\nvalue = 48.916", fillcolor="#e78a47"] ;
23 -> 24 ;
25 [label="Pole Angular Velocity <= 0.159\nmse = 2.528\nsamples = 29\nvalue = 51.918", fillcolor="#e5833c"] ;
23 -> 25 ;
26 [label="mse = 0.785\nsamples = 24\nvalue = 52.316", fillcolor="#e5823a"] ;
25 -> 26 ;
27 [label="mse = 6.493\nsamples = 5\nvalue = 50.01", fillcolor="#e68743"] ;
25 -> 27 ;
28 [label="Pole Angular Velocity <= -0.617\nmse = 1.134\nsamples = 97\nvalue = 52.375", fillcolor="#e5813a"] ;
22 -> 28 ;
29 [label="mse = 7.372\nsamples = 5\nvalue = 50.824", fillcolor="#e68540"] ;
28 -> 29 ;
30 [label="Cart Velocity <= 0.239\nmse = 0.657\nsamples = 92\nvalue = 52.46", fillcolor="#e58139"] ;
28 -> 30 ;
31 [label="mse = 0.107\nsamples = 73\nvalue = 52.577", fillcolor="#e58139"] ;
30 -> 31 ;
32 [label="mse = 2.513\nsamples = 19\nvalue = 52.008", fillcolor="#e5823b"] ;
30 -> 32 ;
33 [label="Action: Push Right <= 0.5\nmse = 4.466\nsamples = 33\nvalue = 49.423", fillcolor="#e78945"] ;
21 -> 33 ;
34 [label="mse = 4.676\nsamples = 18\nvalue = 48.236", fillcolor="#e78c4a"] ;
33 -> 34 ;
35 [label="mse = 0.494\nsamples = 15\nvalue = 50.847", fillcolor="#e68540"] ;
33 -> 35 ;
36 [label="Action: Push Right <= 0.5\nmse = 16.773\nsamples = 68\nvalue = 47.121", fillcolor="#e88e4e"] ;
18 -> 36 ;
37 [label="Pole Angle <= 0.055\nmse = 10.597\nsamples = 31\nvalue = 44.134", fillcolor="#e99659"] ;
36 -> 37 ;
38 [label="Pole Angle <= -0.028\nmse = 2.922\nsamples = 25\nvalue = 45.541", fillcolor="#e99254"] ;
37 -> 38 ;
39 [label="mse = 0.0\nsamples = 5\nvalue = 48.625", fillcolor="#e78b48"] ;
38 -> 39 ;
40 [label="Pole Angle <= 0.01\nmse = 0.679\nsamples = 20\nvalue = 44.769", fillcolor="#e99457"] ;
38 -> 40 ;
41 [label="mse = 0.0\nsamples = 7\nvalue = 45.793", fillcolor="#e89253"] ;
40 -> 41 ;
42 [label="mse = 0.176\nsamples = 13\nvalue = 44.218", fillcolor="#e99559"] ;
40 -> 42 ;
43 [label="mse = 0.0\nsamples = 6\nvalue = 38.274", fillcolor="#eca470"] ;
37 -> 43 ;
44 [label="Pole Angle <= 0.027\nmse = 8.212\nsamples = 37\nvalue = 49.623", fillcolor="#e68844"] ;
36 -> 44 ;
45 [label="mse = 0.964\nsamples = 19\nvalue = 52.327", fillcolor="#e5823a"] ;
44 -> 45 ;
46 [label="mse = 0.0\nsamples = 18\nvalue = 46.769", fillcolor="#e88f4f"] ;
44 -> 46 ;
47 [label="Pole Angular Velocity <= 0.346\nmse = 153.105\nsamples = 76\nvalue = 32.3", fillcolor="#efb387"] ;
13 -> 47 ;
48 [label="Action: Push Left <= 0.5\nmse = 52.795\nsamples = 43\nvalue = 39.659", fillcolor="#eca16b"] ;
47 -> 48 ;
49 [label="Pole Angle <= 0.113\nmse = 10.72\nsamples = 26\nvalue = 42.729", fillcolor="#ea995f"] ;
48 -> 49 ;
50 [label="mse = 5.404\nsamples = 6\nvalue = 47.995", fillcolor="#e78c4b"] ;
49 -> 50 ;
51 [label="Pole Angle <= 0.157\nmse = 1.499\nsamples = 20\nvalue = 41.149", fillcolor="#eb9d65"] ;
49 -> 51 ;
52 [label="mse = -0.0\nsamples = 14\nvalue = 41.951", fillcolor="#ea9b62"] ;
51 -> 52 ;
53 [label="mse = -0.0\nsamples = 6\nvalue = 39.279", fillcolor="#eca16c"] ;
51 -> 53 ;
54 [label="mse = 80.692\nsamples = 17\nvalue = 34.965", fillcolor="#eeac7d"] ;
48 -> 54 ;
55 [label="Action: Push Left <= 0.5\nmse = 121.269\nsamples = 33\nvalue = 22.71", fillcolor="#f4caac"] ;
47 -> 55 ;
56 [label="mse = 22.578\nsamples = 17\nvalue = 32.573", fillcolor="#efb286"] ;
55 -> 56 ;
57 [label="mse = 12.943\nsamples = 16\nvalue = 12.23", fillcolor="#f9e4d4"] ;
55 -> 57 ;
58 [label="Pole Angle <= 0.071\nmse = 236.369\nsamples = 83\nvalue = 15.343", fillcolor="#f8dcc8"] ;
0 -> 58 [labeldistance=2.5, labelangle=-45, headlabel="False"] ;
59 [label="Action: Push Right <= 0.5\nmse = 125.581\nsamples = 31\nvalue = 32.543", fillcolor="#efb286"] ;
58 -> 59 ;
60 [label="mse = -0.0\nsamples = 15\nvalue = 21.444", fillcolor="#f5cdb1"] ;
59 -> 60 ;
61 [label="mse = 19.532\nsamples = 16\nvalue = 42.949", fillcolor="#ea995e"] ;
59 -> 61 ;
62 [label="Pole Angular Velocity <= 1.092\nmse = 20.908\nsamples = 52\nvalue = 5.09", fillcolor="#fdf5ef"] ;
58 -> 62 ;
63 [label="Action: Push Left <= 0.5\nmse = 29.439\nsamples = 20\nvalue = 8.201", fillcolor="#fbede3"] ;
62 -> 63 ;
64 [label="mse = 13.051\nsamples = 11\nvalue = 12.424", fillcolor="#f9e3d3"] ;
63 -> 64 ;
65 [label="mse = 1.019\nsamples = 9\nvalue = 3.039", fillcolor="#fefaf7"] ;
63 -> 65 ;
66 [label="Pole Angle <= 0.132\nmse = 5.746\nsamples = 32\nvalue = 3.145", fillcolor="#fefaf7"] ;
62 -> 66 ;
67 [label="mse = 5.939\nsamples = 12\nvalue = 5.484", fillcolor="#fdf4ee"] ;
66 -> 67 ;
68 [label="Pole Angle <= 0.179\nmse = 0.377\nsamples = 20\nvalue = 1.742", fillcolor="#fffdfc"] ;
66 -> 68 ;
69 [label="mse = 0.125\nsamples = 13\nvalue = 2.141", fillcolor="#fefcfb"] ;
68 -> 69 ;
70 [label="mse = 0.0\nsamples = 7\nvalue = 1.0", fillcolor="#ffffff"] ;
68 -> 70 ;
}
