digraph Tree {
node [shape=box, style="filled", color="black"] ;
0 [label="Pole Angular Velocity <= 0.822\nmse = 145.457\nsamples = 512\nvalue = 21.881", fillcolor="#efb083"] ;
1 [label="Pole Angle <= -0.074\nmse = 107.307\nsamples = 410\nvalue = 25.334", fillcolor="#eca36e"] ;
0 -> 1 [labeldistance=2.5, labelangle=45, headlabel="True"] ;
2 [label="Pole Angular Velocity <= -0.651\nmse = 54.431\nsamples = 70\nvalue = 12.269", fillcolor="#f6d5bc"] ;
1 -> 2 ;
3 [label="Pole Angle <= -0.12\nmse = 30.706\nsamples = 38\nvalue = 7.013", fillcolor="#fae9dc"] ;
2 -> 3 ;
4 [label="Pole Angle <= -0.181\nmse = 18.147\nsamples = 30\nvalue = 5.069", fillcolor="#fcf0e8"] ;
3 -> 4 ;
5 [label="mse = 0.221\nsamples = 10\nvalue = 1.157", fillcolor="#ffffff"] ;
4 -> 5 ;
6 [label="Cart Velocity <= 0.597\nmse = 15.629\nsamples = 20\nvalue = 7.026", fillcolor="#fae9dc"] ;
4 -> 6 ;
7 [label="mse = 16.311\nsamples = 10\nvalue = 9.495", fillcolor="#f8dfcd"] ;
6 -> 7 ;
8 [label="mse = 2.754\nsamples = 10\nvalue = 4.557", fillcolor="#fcf2eb"] ;
6 -> 8 ;
9 [label="mse = 10.511\nsamples = 8\nvalue = 14.302", fillcolor="#f5cdb0"] ;
3 -> 9 ;
10 [label="Cart Position <= 0.041\nmse = 10.839\nsamples = 32\nvalue = 18.511", fillcolor="#f1bd97"] ;
2 -> 10 ;
11 [label="mse = 0.12\nsamples = 8\nvalue = 23.548", fillcolor="#edaa79"] ;
10 -> 11 ;
12 [label="Cart Velocity <= 0.294\nmse = 3.135\nsamples = 24\nvalue = 16.832", fillcolor="#f3c3a1"] ;
10 -> 12 ;
13 [label="mse = 1.278\nsamples = 18\nvalue = 17.577", fillcolor="#f2c09d"] ;
12 -> 13 ;
14 [label="mse = 2.038\nsamples = 6\nvalue = 14.595", fillcolor="#f4ccaf"] ;
12 -> 14 ;
15 [label="Pole Angle <= 0.044\nmse = 75.817\nsamples = 340\nvalue = 28.024", fillcolor="#ea995e"] ;
1 -> 15 ;
16 [label="Cart Velocity <= 0.73\nmse = 45.177\nsamples = 238\nvalue = 31.778", fillcolor="#e78a48"] ;
15 -> 16 ;
17 [label="Pole Angular Velocity <= 0.325\nmse = 37.014\nsamples = 225\nvalue = 32.413", fillcolor="#e68844"] ;
16 -> 17 ;
18 [label="Pole Angle <= -0.061\nmse = 18.587\nsamples = 184\nvalue = 33.825", fillcolor="#e5833c"] ;
17 -> 18 ;
19 [label="mse = 68.467\nsamples = 10\nvalue = 26.554", fillcolor="#eb9e67"] ;
18 -> 19 ;
20 [label="mse = 12.507\nsamples = 174\nvalue = 34.243", fillcolor="#e58139"] ;
18 -> 20 ;
21 [label="Action: Push Right <= 0.5\nmse = 70.615\nsamples = 41\nvalue = 26.076", fillcolor="#eba06a"] ;
17 -> 21 ;
22 [label="mse = 28.212\nsamples = 21\nvalue = 19.849", fillcolor="#f0b88f"] ;
21 -> 22 ;
23 [label="mse = 31.66\nsamples = 20\nvalue = 32.615", fillcolor="#e68743"] ;
21 -> 23 ;
24 [label="mse = 58.694\nsamples = 13\nvalue = 20.787", fillcolor="#f0b48a"] ;
16 -> 24 ;
25 [label="Pole Angular Velocity <= 0.219\nmse = 37.696\nsamples = 102\nvalue = 19.264", fillcolor="#f1ba93"] ;
15 -> 25 ;
26 [label="Action: Push Right <= 0.5\nmse = 12.184\nsamples = 41\nvalue = 24.039", fillcolor="#eda876"] ;
25 -> 26 ;
27 [label="mse = 12.912\nsamples = 16\nvalue = 21.331", fillcolor="#efb286"] ;
26 -> 27 ;
28 [label="Pole Angle <= 0.058\nmse = 4.019\nsamples = 25\nvalue = 25.772", fillcolor="#eca16c"] ;
26 -> 28 ;
29 [label="mse = 5.557\nsamples = 5\nvalue = 29.053", fillcolor="#e99558"] ;
28 -> 29 ;
30 [label="mse = 0.271\nsamples = 20\nvalue = 24.952", fillcolor="#eca471"] ;
28 -> 30 ;
31 [label="Action: Push Right <= 0.5\nmse = 29.221\nsamples = 61\nvalue = 16.055", fillcolor="#f3c6a6"] ;
25 -> 31 ;
32 [label="Pole Angle <= 0.102\nmse = 12.464\nsamples = 24\nvalue = 10.69", fillcolor="#f8dbc6"] ;
31 -> 32 ;
33 [label="mse = 6.044\nsamples = 17\nvalue = 12.353", fillcolor="#f6d4bc"] ;
32 -> 33 ;
34 [label="mse = 5.016\nsamples = 7\nvalue = 6.65", fillcolor="#fbeade"] ;
32 -> 34 ;
35 [label="Pole Angular Velocity <= 0.366\nmse = 9.307\nsamples = 37\nvalue = 19.535", fillcolor="#f1b991"] ;
31 -> 35 ;
36 [label="mse = 0.51\nsamples = 5\nvalue = 25.608", fillcolor="#eca26d"] ;
35 -> 36 ;
37 [label="mse = 4.019\nsamples = 32\nvalue = 18.586", fillcolor="#f1bd97"] ;
35 -> 37 ;
38 [label="Pole Angle <= -0.017\nmse = 58.242\nsamples = 102\nvalue = 8.002", fillcolor="#fae5d6"] ;
0 -> 38 [labeldistance=2.5, labelangle=-45, headlabel="False"] ;
39 [label="mse = 7.785\nsamples = 10\nvalue = 27.786", fillcolor="#ea9a60"] ;
38 -> 39 ;
40 [label="Pole Angle <= 0.102\nmse = 16.559\nsamples = 92\nvalue = 5.851", fillcolor="#fbede3"] ;
38 -> 40 ;
41 [label="Pole Angle <= 0.018\nmse = 7.127\nsamples = 45\nvalue = 9.422", fillcolor="#f9e0ce"] ;
40 -> 41 ;
42 [label="mse = 0.949\nsamples = 5\nvalue = 15.262", fillcolor="#f4c9ab"] ;
41 -> 42 ;
43 [label="Cart Velocity <= -0.756\nmse = 3.102\nsamples = 40\nvalue = 8.692", fillcolor="#f9e2d2"] ;
41 -> 43 ;
44 [label="Pole Angle <= 0.053\nmse = 1.291\nsamples = 23\nvalue = 7.878", fillcolor="#fae5d7"] ;
43 -> 44 ;
45 [label="mse = 0.785\nsamples = 9\nvalue = 9.065", fillcolor="#f9e1d0"] ;
44 -> 45 ;
46 [label="mse = 0.129\nsamples = 14\nvalue = 7.115", fillcolor="#fae8db"] ;
44 -> 46 ;
47 [label="mse = 3.447\nsamples = 17\nvalue = 9.792", fillcolor="#f8decb"] ;
43 -> 47 ;
48 [label="Pole Angle <= 0.176\nmse = 1.698\nsamples = 47\nvalue = 2.433", fillcolor="#fefaf7"] ;
40 -> 48 ;
49 [label="Pole Angle <= 0.131\nmse = 1.194\nsamples = 28\nvalue = 3.163", fillcolor="#fdf7f3"] ;
48 -> 49 ;
50 [label="mse = 0.699\nsamples = 6\nvalue = 4.508", fillcolor="#fcf2eb"] ;
49 -> 50 ;
51 [label="Pole Angular Velocity <= 1.288\nmse = 0.701\nsamples = 22\nvalue = 2.796", fillcolor="#fef9f5"] ;
49 -> 51 ;
52 [label="mse = 0.478\nsamples = 12\nvalue = 3.391", fillcolor="#fdf6f2"] ;
51 -> 52 ;
53 [label="mse = 0.034\nsamples = 10\nvalue = 2.082", fillcolor="#fefbf9"] ;
51 -> 53 ;
54 [label="mse = 0.498\nsamples = 19\nvalue = 1.357", fillcolor="#fffefe"] ;
48 -> 54 ;
}
